SVM-light Version V6.20
0 # kernel type
3 # kernel parameter -d 
1 # kernel parameter -g 
1 # kernel parameter -s 
1 # kernel parameter -r 
empty# kernel parameter -u 
46 # highest feature index 
2 # number of training documents 
2 # number of support vectors plus 1 
0 # threshold b, each following line is a SV (starting with alpha*y)
1 1:0.005688664 2:0.0060475506 3:0.005388217 4:0.0055877436 8:0.0061478214 9:0.0056258724 10:0.0069580507 11:0.0068092183 12:0.0076752026 13:0.0066192653 14:0.0065357988 15:0.0065571587 16:0.0011515594 17:0.0015942347 18:0.0014715204 19:0.0014992965 23:0.0015996645 24:0.0011352205 25:0.0018809307 26:0.0021057231 27:0.0014993376 28:0.0024081771 29:0.0023703722 30:0.0024109397 31:0.0020520801 32:0.003063702 33:0.0026854086 34:0.0027939714 38:0.0031662323 39:0.001968856 40:0.0040605599 41:0.0048302528 42:0.004377069 43:0.0049286345 44:0.0048048291 45:0.0050116591 #
