SVM-light Version V6.20
0 # kernel type
3 # kernel parameter -d 
1 # kernel parameter -g 
1 # kernel parameter -s 
1 # kernel parameter -r 
empty# kernel parameter -u 
46 # highest feature index 
2 # number of training documents 
2 # number of support vectors plus 1 
0 # threshold b, each following line is a SV (starting with alpha*y)
1 1:0.052751698 2:0.056140013 3:0.050048295 4:0.051952954 8:0.05725139 9:0.05216239 10:0.064869776 11:0.063519977 12:0.071978398 13:0.061518341 14:0.060700037 15:0.060913574 16:0.0094407974 17:0.013316652 18:0.012341354 19:0.012596052 23:0.013465556 24:0.0092859929 25:0.015813619 26:0.017959878 27:0.011863746 28:0.020995781 29:0.020619586 30:0.020993492 31:0.017908523 32:0.027418867 33:0.024899939 34:0.025897086 38:0.029367132 39:0.017120566 40:0.037158374 41:0.044202272 42:0.039712865 43:0.045318712 44:0.044104803 45:0.046110883 #
