SVM-light Version V6.20
0 # kernel type
3 # kernel parameter -d 
1 # kernel parameter -g 
1 # kernel parameter -s 
1 # kernel parameter -r 
empty# kernel parameter -u 
46 # highest feature index 
15 # number of training documents 
2 # number of support vectors plus 1 
0 # threshold b, each following line is a SV (starting with alpha*y)
1 1:-0.0999102 2:-0.026840014 3:0.29960787 4:0.30865198 8:0.25503936 9:-0.062688723 10:0.12615374 11:0.20299266 12:0.27649489 13:0.066620454 14:0.091684423 15:0.089143761 16:-0.14930768 17:-0.073998764 18:-0.0074002245 19:0.0010887051 23:0.074976176 24:-0.022701304 25:-0.079075776 26:0.18476866 27:-0.20758335 28:0.098591477 29:0.095174909 30:0.118666 31:-0.14363959 32:0.0033477417 33:0.0075561553 34:-0.006675188 38:-0.010946525 39:0.0071176835 40:-0.080657676 41:0.28795719 42:0.037805703 43:0.33967388 44:0.10429925 45:0.22109382 #
